Language model created by QuickLM on Mon Nov 21 14:46:17 EST 2016
Copyright (c) 1996-2010 Carnegie Mellon University and Alexander I. Rudnicky

The model is in standard ARPA format, designed by Doug Paul while he was at MITRE.

The code that was used to produce this language model is available in Open Source.
Please visit http://www.speech.cs.cmu.edu/tools/ for more information

The (fixed) discount mass is 0.5. The backoffs are computed using the ratio method.
This model based on a corpus of 10 sentences and 18 words

\data\
ngram 1=18
ngram 2=26
ngram 3=16

\1-grams:
-0.8573 </s> -0.3010
-0.8573 <s> -0.2361
-1.8573 BACK -0.2361
-1.8573 BEND -0.2950
-1.8573 CLOSE -0.2950
-1.8573 COME -0.2950
-1.8573 DOWN -0.2361
-1.8573 EXTEND -0.2361
-1.8573 HAND -0.2361
-1.8573 HOME -0.2950
-1.8573 LEFT -0.2361
-1.8573 MOTORS -0.2950
-1.8573 MOVE -0.2950
-1.8573 OFF -0.2361
-1.8573 POSITION -0.2361
-1.8573 RELEASE -0.2361
-1.8573 RIGHT -0.2361
-1.8573 UP -0.2361

\2-grams:
-1.3010 <s> BEND 0.0000
-1.3010 <s> CLOSE 0.0000
-1.3010 <s> COME 0.0000
-1.3010 <s> EXTEND 0.0000
-1.3010 <s> HOME 0.0000
-1.3010 <s> LEFT 0.0000
-1.3010 <s> MOTORS 0.0000
-1.3010 <s> MOVE 0.0000
-1.3010 <s> RELEASE 0.0000
-1.3010 <s> RIGHT 0.0000
-0.3010 BACK </s> -0.3010
-0.3010 BEND DOWN 0.0000
-0.3010 CLOSE HAND 0.0000
-0.3010 COME BACK 0.0000
-0.3010 DOWN </s> -0.3010
-0.3010 EXTEND </s> -0.3010
-0.3010 HAND </s> -0.3010
-0.3010 HOME POSITION 0.0000
-0.3010 LEFT </s> -0.3010
-0.3010 MOTORS OFF 0.0000
-0.3010 MOVE UP 0.0000
-0.3010 OFF </s> -0.3010
-0.3010 POSITION </s> -0.3010
-0.3010 RELEASE </s> -0.3010
-0.3010 RIGHT </s> -0.3010
-0.3010 UP </s> -0.3010

\3-grams:
-0.3010 <s> BEND DOWN
-0.3010 <s> CLOSE HAND
-0.3010 <s> COME BACK
-0.3010 <s> EXTEND </s>
-0.3010 <s> HOME POSITION
-0.3010 <s> LEFT </s>
-0.3010 <s> MOTORS OFF
-0.3010 <s> MOVE UP
-0.3010 <s> RELEASE </s>
-0.3010 <s> RIGHT </s>
-0.3010 BEND DOWN </s>
-0.3010 CLOSE HAND </s>
-0.3010 COME BACK </s>
-0.3010 HOME POSITION </s>
-0.3010 MOTORS OFF </s>
-0.3010 MOVE UP </s>

\end\
